<?xml version="1.0"?>
<opencv_storage>
<cascade>
  <stageType>BOOST</stageType>
  <featureType>HAAR</featureType>
  <height>20</height>
  <width>20</width>
  <stageParams>
    <boostType>GAB</boostType>
    <minHitRate>9.9500000476837158e-01</minHitRate>
    <maxFalseAlarm>5.0000000000000000e-01</maxFalseAlarm>
    <weightTrimRate>9.4999999999999996e-01</weightTrimRate>
    <maxDepth>1</maxDepth>
    <maxWeakCount>100</maxWeakCount></stageParams>
  <featureParams>
    <maxCatCount>0</maxCatCount>
    <featSize>1</featSize>
    <mode>BASIC</mode></featureParams>
  <stageNum>12</stageNum>
  <stages>
    <!-- stage 0 -->
    <_>
      <maxWeakCount>2</maxWeakCount>
      <stageThreshold>-4.8104643821716309e-02</stageThreshold>
      <weakClassifiers>
        <_>
          <internalNodes>
            0 -1 4 4.1708409786224365e-02</internalNodes>
          <leafValues>
            -8.9834517240524292e-01 8.9536136388778687e-01</leafValues></_>
        <_>
          <internalNodes>
            0 -1 12 3.4163057804107666e-02</internalNodes>
          <leafValues>
            -8.4228944778442383e-01 8.5024052858352661e-01</leafValues></_></weakClassifiers></_>
    <!-- stage 1 -->
    <_>
      <maxWeakCount>2</maxWeakCount>
      <stageThreshold>-1.4554653316736221e-02</stageThreshold>
      <weakClassifiers>
        <_>
          <internalNodes>
            0 -1 25 2.0760253071784973e-02</internalNodes>
          <leafValues>
            -8.1512606143951416e-01 8.4574180841445923e-01</leafValues></_>
        <_>
          <internalNodes>
            0 -1 16 7.6793253421783447e-02</internalNodes>
          <leafValues>
            -7.8994148969650269e-01 8.0057138204574585e-01</leafValues></_></weakClassifiers></_>
    <!-- stage 2 -->
    <_>
      <maxWeakCount>2</maxWeakCount>
      <stageThreshold>-2.3690487444400787e-01</stageThreshold>
      <weakClassifiers>
        <_>
          <internalNodes>
            0 -1 22 3.3041168004274368e-02</internalNodes>
          <leafValues>
            -9.0294116735458374e-01 7.4950492382049561e-01</leafValues></_>
        <_>
          <internalNodes>
            0 -1 10 -1.0878792963922024e-03</internalNodes>
          <leafValues>
            6.6603630781173706e-01 -7.8410416841506958e-01</leafValues></_></weakClassifiers></_>
    <!-- stage 3 -->
    <_>
      <maxWeakCount>6</maxWeakCount>
      <stageThreshold>-8.2609277963638306e-01</stageThreshold>
      <weakClassifiers>
        <_>
          <internalNodes>
            0 -1 3 4.4441413134336472e-02</internalNodes>
          <leafValues>
            -6.7326730489730835e-01 7.6321351528167725e-01</leafValues></_>
        <_>
          <internalNodes>
            0 -1 40 2.2374831140041351e-02</internalNodes>
          <leafValues>
            -6.8112319707870483e-01 6.6442698240280151e-01</leafValues></_>
        <_>
          <internalNodes>
            0 -1 27 4.4959392398595810e-03</internalNodes>
          <leafValues>
            -7.8784167766571045e-01 4.6300455927848816e-01</leafValues></_>
        <_>
          <internalNodes>
            0 -1 28 -3.0836943536996841e-02</internalNodes>
          <leafValues>
            6.9405770301818848e-01 -6.5009528398513794e-01</leafValues></_>
        <_>
          <internalNodes>
            0 -1 24 -2.5367373600602150e-02</internalNodes>
          <leafValues>
            3.6036852002143860e-01 -9.7363215684890747e-01</leafValues></_>
        <_>
          <internalNodes>
            0 -1 9 3.1827527564018965e-03</internalNodes>
          <leafValues>
            -8.1308531761169434e-01 3.5501995682716370e-01</leafValues></_></weakClassifiers></_>
    <!-- stage 4 -->
    <_>
      <maxWeakCount>4</maxWeakCount>
      <stageThreshold>-4.8210787773132324e-01</stageThreshold>
      <weakClassifiers>
        <_>
          <internalNodes>
            0 -1 15 4.3536508455872536e-03</internalNodes>
          <leafValues>
            -8.7455195188522339e-01 6.4799255132675171e-01</leafValues></_>
        <_>
          <internalNodes>
            0 -1 44 -6.3160406425595284e-03</internalNodes>
          <leafValues>
            5.7936179637908936e-01 -7.2973138093948364e-01</leafValues></_>
        <_>
          <internalNodes>
            0 -1 1 2.7261406183242798e-02</internalNodes>
          <leafValues>
            -7.1599435806274414e-01 5.0620627403259277e-01</leafValues></_>
        <_>
          <internalNodes>
            0 -1 2 1.2073114514350891e-02</internalNodes>
          <leafValues>
            -5.8933264017105103e-01 5.2907663583755493e-01</leafValues></_></weakClassifiers></_>
    <!-- stage 5 -->
    <_>
      <maxWeakCount>4</maxWeakCount>
      <stageThreshold>-7.5665676593780518e-01</stageThreshold>
      <weakClassifiers>
        <_>
          <internalNodes>
            0 -1 45 -2.3850945290178061e-03</internalNodes>
          <leafValues>
            6.4800757169723511e-01 -7.8716218471527100e-01</leafValues></_>
        <_>
          <internalNodes>
            0 -1 35 2.3828197736293077e-03</internalNodes>
          <leafValues>
            -7.8128206729888916e-01 5.2562516927719116e-01</leafValues></_>
        <_>
          <internalNodes>
            0 -1 38 -4.0488932281732559e-03</internalNodes>
          <leafValues>
            5.3697919845581055e-01 -7.4498844146728516e-01</leafValues></_>
        <_>
          <internalNodes>
            0 -1 33 3.0847149901092052e-05</internalNodes>
          <leafValues>
            2.4986866116523743e-01 -9.8199164867401123e-01</leafValues></_></weakClassifiers></_>
    <!-- stage 6 -->
    <_>
      <maxWeakCount>6</maxWeakCount>
      <stageThreshold>-1.1252062320709229e+00</stageThreshold>
      <weakClassifiers>
        <_>
          <internalNodes>
            0 -1 29 5.1014516502618790e-03</internalNodes>
          <leafValues>
            -7.6134455204010010e-01 6.4275532960891724e-01</leafValues></_>
        <_>
          <internalNodes>
            0 -1 43 5.2079753950238228e-03</internalNodes>
          <leafValues>
            -7.8619468212127686e-01 5.1020550727844238e-01</leafValues></_>
        <_>
          <internalNodes>
            0 -1 13 -7.3980018496513367e-03</internalNodes>
          <leafValues>
            4.5488467812538147e-01 -7.2431731224060059e-01</leafValues></_>
        <_>
          <internalNodes>
            0 -1 20 5.1047094166278839e-02</internalNodes>
          <leafValues>
            -7.1299225091934204e-01 4.6081197261810303e-01</leafValues></_>
        <_>
          <internalNodes>
            0 -1 5 4.3071970343589783e-02</internalNodes>
          <leafValues>
            -9.2117285728454590e-01 2.8903418779373169e-01</leafValues></_>
        <_>
          <internalNodes>
            0 -1 8 3.6259787157177925e-03</internalNodes>
          <leafValues>
            -9.3375575542449951e-01 2.7420818805694580e-01</leafValues></_></weakClassifiers></_>
    <!-- stage 7 -->
    <_>
      <maxWeakCount>4</maxWeakCount>
      <stageThreshold>-7.2411054372787476e-01</stageThreshold>
      <weakClassifiers>
        <_>
          <internalNodes>
            0 -1 32 -2.5033060228452086e-04</internalNodes>
          <leafValues>
            5.8355438709259033e-01 -9.5890408754348755e-01</leafValues></_>
        <_>
          <internalNodes>
            0 -1 31 -3.0921655707061291e-03</internalNodes>
          <leafValues>
            -9.4406163692474365e-01 3.8554584980010986e-01</leafValues></_>
        <_>
          <internalNodes>
            0 -1 17 1.1953015625476837e-01</internalNodes>
          <leafValues>
            -6.7120927572250366e-01 4.4733104109764099e-01</leafValues></_>
        <_>
          <internalNodes>
            0 -1 14 -5.5497914552688599e-02</internalNodes>
          <leafValues>
            3.0760604143142700e-01 -8.5818207263946533e-01</leafValues></_></weakClassifiers></_>
    <!-- stage 8 -->
    <_>
      <maxWeakCount>5</maxWeakCount>
      <stageThreshold>-1.2427517175674438e+00</stageThreshold>
      <weakClassifiers>
        <_>
          <internalNodes>
            0 -1 46 -5.3415051661431789e-04</internalNodes>
          <leafValues>
            6.5882939100265503e-01 -5.9486448764801025e-01</leafValues></_>
        <_>
          <internalNodes>
            0 -1 6 1.4980016276240349e-02</internalNodes>
          <leafValues>
            -6.4127069711685181e-01 5.1724743843078613e-01</leafValues></_>
        <_>
          <internalNodes>
            0 -1 21 5.2055254578590393e-02</internalNodes>
          <leafValues>
            -6.7140877246856689e-01 4.3108433485031128e-01</leafValues></_>
        <_>
          <internalNodes>
            0 -1 31 -2.5733341462910175e-03</internalNodes>
          <leafValues>
            -8.5190421342849731e-01 2.8904414176940918e-01</leafValues></_>
        <_>
          <internalNodes>
            0 -1 41 -2.1740872762165964e-04</internalNodes>
          <leafValues>
            1.9355951249599457e-01 -8.7794578075408936e-01</leafValues></_></weakClassifiers></_>
    <!-- stage 9 -->
    <_>
      <maxWeakCount>4</maxWeakCount>
      <stageThreshold>-7.0423054695129395e-01</stageThreshold>
      <weakClassifiers>
        <_>
          <internalNodes>
            0 -1 7 1.3777017593383789e-02</internalNodes>
          <leafValues>
            -6.0179638862609863e-01 6.4074802398681641e-01</leafValues></_>
        <_>
          <internalNodes>
            0 -1 23 2.8455689549446106e-02</internalNodes>
          <leafValues>
            3.5410252213478088e-01 -9.3774986267089844e-01</leafValues></_>
        <_>
          <internalNodes>
            0 -1 11 7.3932702653110027e-03</internalNodes>
          <leafValues>
            -9.4650268554687500e-01 3.0708834528923035e-01</leafValues></_>
        <_>
          <internalNodes>
            0 -1 42 7.0388885214924812e-03</internalNodes>
          <leafValues>
            -7.5257849693298340e-01 3.1805589795112610e-01</leafValues></_></weakClassifiers></_>
    <!-- stage 10 -->
    <_>
      <maxWeakCount>4</maxWeakCount>
      <stageThreshold>-5.6122034788131714e-01</stageThreshold>
      <weakClassifiers>
        <_>
          <internalNodes>
            0 -1 30 9.4993627863004804e-04</internalNodes>
          <leafValues>
            5.8446252346038818e-01 -8.1069958209991455e-01</leafValues></_>
        <_>
          <internalNodes>
            0 -1 39 -1.2305397540330887e-03</internalNodes>
          <leafValues>
            3.8202011585235596e-01 -7.8603726625442505e-01</leafValues></_>
        <_>
          <internalNodes>
            0 -1 37 -1.6230295877903700e-03</internalNodes>
          <leafValues>
            -9.6169322729110718e-01 2.8036728501319885e-01</leafValues></_>
        <_>
          <internalNodes>
            0 -1 19 7.3079600930213928e-02</internalNodes>
          <leafValues>
            -5.6600975990295410e-01 4.8030093312263489e-01</leafValues></_></weakClassifiers></_>
    <!-- stage 11 -->
    <_>
      <maxWeakCount>5</maxWeakCount>
      <stageThreshold>-6.5884697437286377e-01</stageThreshold>
      <weakClassifiers>
        <_>
          <internalNodes>
            0 -1 36 -6.2774837017059326e-02</internalNodes>
          <leafValues>
            5.4501956701278687e-01 -8.8029927015304565e-01</leafValues></_>
        <_>
          <internalNodes>
            0 -1 34 -4.3505485518835485e-04</internalNodes>
          <leafValues>
            2.7920529246330261e-01 -9.4718950986862183e-01</leafValues></_>
        <_>
          <internalNodes>
            0 -1 26 -1.1279623024165630e-02</internalNodes>
          <leafValues>
            3.0465999245643616e-01 -7.8392285108566284e-01</leafValues></_>
        <_>
          <internalNodes>
            0 -1 0 2.0231209695339203e-02</internalNodes>
          <leafValues>
            -5.9233468770980835e-01 4.1592678427696228e-01</leafValues></_>
        <_>
          <internalNodes>
            0 -1 18 9.9220473202876747e-05</internalNodes>
          <leafValues>
            2.2992169857025146e-01 -9.6927708387374878e-01</leafValues></_></weakClassifiers></_></stages>
  <features>
    <_>
      <rects>
        <_>
          2 6 4 9 -1.</_>
        <_>
          4 6 2 9 2.</_></rects>
      <tilted>0</tilted></_>
    <_>
      <rects>
        <_>
          2 6 10 2 -1.</_>
        <_>
          7 6 5 2 2.</_></rects>
      <tilted>0</tilted></_>
    <_>
      <rects>
        <_>
          2 10 4 4 -1.</_>
        <_>
          4 10 2 4 2.</_></rects>
      <tilted>0</tilted></_>
    <_>
      <rects>
        <_>
          2 14 15 2 -1.</_>
        <_>
          7 14 5 2 3.</_></rects>
      <tilted>0</tilted></_>
    <_>
      <rects>
        <_>
          3 6 15 2 -1.</_>
        <_>
          8 6 5 2 3.</_></rects>
      <tilted>0</tilted></_>
    <_>
      <rects>
        <_>
          3 6 10 9 -1.</_>
        <_>
          8 6 5 9 2.</_></rects>
      <tilted>0</tilted></_>
    <_>
      <rects>
        <_>
          3 11 6 4 -1.</_>
        <_>
          3 11 3 2 2.</_>
        <_>
          6 13 3 2 2.</_></rects>
      <tilted>0</tilted></_>
    <_>
      <rects>
        <_>
          3 12 10 4 -1.</_>
        <_>
          3 12 5 2 2.</_>
        <_>
          8 14 5 2 2.</_></rects>
      <tilted>0</tilted></_>
    <_>
      <rects>
        <_>
          4 5 12 10 -1.</_>
        <_>
          4 10 12 5 2.</_></rects>
      <tilted>0</tilted></_>
    <_>
      <rects>
        <_>
          4 8 3 7 -1.</_>
        <_>
          5 8 1 7 3.</_></rects>
      <tilted>0</tilted></_>
    <_>
      <rects>
        <_>
          4 13 2 2 -1.</_>
        <_>
          4 14 2 1 2.</_></rects>
      <tilted>0</tilted></_>
    <_>
      <rects>
        <_>
          5 4 10 12 -1.</_>
        <_>
          5 10 10 6 2.</_></rects>
      <tilted>0</tilted></_>
    <_>
      <rects>
        <_>
          5 11 11 6 -1.</_>
        <_>
          5 13 11 2 3.</_></rects>
      <tilted>0</tilted></_>
    <_>
      <rects>
        <_>
          5 13 2 4 -1.</_>
        <_>
          5 15 2 2 2.</_></rects>
      <tilted>0</tilted></_>
    <_>
      <rects>
        <_>
          6 6 12 8 -1.</_>
        <_>
          12 6 6 8 2.</_></rects>
      <tilted>0</tilted></_>
    <_>
      <rects>
        <_>
          6 10 2 4 -1.</_>
        <_>
          6 12 2 2 2.</_></rects>
      <tilted>0</tilted></_>
    <_>
      <rects>
        <_>
          6 10 7 9 -1.</_>
        <_>
          6 13 7 3 3.</_></rects>
      <tilted>0</tilted></_>
    <_>
      <rects>
        <_>
          6 10 8 9 -1.</_>
        <_>
          6 13 8 3 3.</_></rects>
      <tilted>0</tilted></_>
    <_>
      <rects>
        <_>
          6 11 3 1 -1.</_>
        <_>
          7 11 1 1 3.</_></rects>
      <tilted>0</tilted></_>
    <_>
      <rects>
        <_>
          6 12 8 6 -1.</_>
        <_>
          6 14 8 2 3.</_></rects>
      <tilted>0</tilted></_>
    <_>
      <rects>
        <_>
          7 2 6 9 -1.</_>
        <_>
          7 5 6 3 3.</_></rects>
      <tilted>0</tilted></_>
    <_>
      <rects>
        <_>
          7 2 7 9 -1.</_>
        <_>
          7 5 7 3 3.</_></rects>
      <tilted>0</tilted></_>
    <_>
      <rects>
        <_>
          7 3 7 9 -1.</_>
        <_>
          7 6 7 3 3.</_></rects>
      <tilted>0</tilted></_>
    <_>
      <rects>
        <_>
          7 4 6 14 -1.</_>
        <_>
          7 11 6 7 2.</_></rects>
      <tilted>0</tilted></_>
    <_>
      <rects>
        <_>
          7 7 10 6 -1.</_>
        <_>
          12 7 5 6 2.</_></rects>
      <tilted>0</tilted></_>
    <_>
      <rects>
        <_>
          7 9 6 3 -1.</_>
        <_>
          9 9 2 3 3.</_></rects>
      <tilted>0</tilted></_>
    <_>
      <rects>
        <_>
          7 9 4 8 -1.</_>
        <_>
          7 9 2 4 2.</_>
        <_>
          9 13 2 4 2.</_></rects>
      <tilted>0</tilted></_>
    <_>
      <rects>
        <_>
          7 10 4 1 -1.</_>
        <_>
          9 10 2 1 2.</_></rects>
      <tilted>0</tilted></_>
    <_>
      <rects>
        <_>
          7 14 6 4 -1.</_>
        <_>
          7 16 6 2 2.</_></rects>
      <tilted>0</tilted></_>
    <_>
      <rects>
        <_>
          8 8 2 4 -1.</_>
        <_>
          9 8 1 4 2.</_></rects>
      <tilted>0</tilted></_>
    <_>
      <rects>
        <_>
          8 9 5 3 -1.</_>
        <_>
          8 10 5 1 3.</_></rects>
      <tilted>0</tilted></_>
    <_>
      <rects>
        <_>
          8 10 4 3 -1.</_>
        <_>
          8 11 4 1 3.</_></rects>
      <tilted>0</tilted></_>
    <_>
      <rects>
        <_>
          8 10 5 3 -1.</_>
        <_>
          8 11 5 1 3.</_></rects>
      <tilted>0</tilted></_>
    <_>
      <rects>
        <_>
          8 11 4 3 -1.</_>
        <_>
          8 12 4 1 3.</_></rects>
      <tilted>0</tilted></_>
    <_>
      <rects>
        <_>
          8 11 5 3 -1.</_>
        <_>
          8 12 5 1 3.</_></rects>
      <tilted>0</tilted></_>
    <_>
      <rects>
        <_>
          8 13 4 2 -1.</_>
        <_>
          8 14 4 1 2.</_></rects>
      <tilted>0</tilted></_>
    <_>
      <rects>
        <_>
          9 6 8 10 -1.</_>
        <_>
          13 6 4 10 2.</_></rects>
      <tilted>0</tilted></_>
    <_>
      <rects>
        <_>
          9 9 3 3 -1.</_>
        <_>
          9 10 3 1 3.</_></rects>
      <tilted>0</tilted></_>
    <_>
      <rects>
        <_>
          10 9 2 3 -1.</_>
        <_>
          11 9 1 3 2.</_></rects>
      <tilted>0</tilted></_>
    <_>
      <rects>
        <_>
          10 10 2 1 -1.</_>
        <_>
          11 10 1 1 2.</_></rects>
      <tilted>0</tilted></_>
    <_>
      <rects>
        <_>
          11 5 6 8 -1.</_>
        <_>
          11 5 3 4 2.</_>
        <_>
          14 9 3 4 2.</_></rects>
      <tilted>0</tilted></_>
    <_>
      <rects>
        <_>
          11 15 2 2 -1.</_>
        <_>
          12 15 1 2 2.</_></rects>
      <tilted>0</tilted></_>
    <_>
      <rects>
        <_>
          12 2 1 9 -1.</_>
        <_>
          12 5 1 3 3.</_></rects>
      <tilted>0</tilted></_>
    <_>
      <rects>
        <_>
          12 10 1 6 -1.</_>
        <_>
          12 13 1 3 2.</_></rects>
      <tilted>0</tilted></_>
    <_>
      <rects>
        <_>
          13 13 2 4 -1.</_>
        <_>
          13 15 2 2 2.</_></rects>
      <tilted>0</tilted></_>
    <_>
      <rects>
        <_>
          14 7 4 4 -1.</_>
        <_>
          16 7 2 4 2.</_></rects>
      <tilted>0</tilted></_>
    <_>
      <rects>
        <_>
          14 13 2 2 -1.</_>
        <_>
          14 14 2 1 2.</_></rects>
      <tilted>0</tilted></_></features></cascade>
</opencv_storage>
